4 2 3 100 21
8 6 4 3 
-28.56 -19.2 132.215 113.044
-0.109736 0.359303 -0.593405 0.0601177 1.14697 0.0580219 0.149555 1.20785 0.606943 1.55121 -0.823291 1.08478 1.11907 0.126083 -1.12454 -1.03487 -0.163874 0.00247374 -0.391399 0.254526 1.15255 0.542738 -0.378855 -1.08457 -0.502963 0.246848 -0.461735 -0.139915 -0.442365 0.130245 -0.842132 0.693195 0.232978 -0.0275317 -0.604416 0.502621 0.715348 0.850307 -0.153405 -0.46194 0.0894656 -0.20239 1.09287 0.342992 0.231641 -0.933608 0.654291 -0.642959 0.52014 -0.443302 0.510878 0.836125 1.30487 0.928404 0.392765 -0.83991 -0.771435 -0.321789 0.674676 -0.511967 -0.0770245 -1.15051 0.689409 -0.723362 -0.915536 0.216219 -0.257029 -0.326968 -0.126427 0.52649 1.47547 -0.106107 1.12537 0.0739481 2.09504 -0.970102 -0.306449 1.53607 -0.38462 -1.12274 -1.18765 -0.63829 0.0327323 0.313536 1.06395 -1.41758 -0.148529 -1.95528 0.361345 1.63777 0.658958 3.20466 0.788623 1.62426 -3.13412 -0.999144 1.52908 -3.1209 0.636719 -0.514807 
-0.483378 0.423857 -0.222014 0.268868 0.034245 -0.410261 -0.0263728 -0.238841 0.440759 0.318273 -0.403279 0.359338 0.182138 0.341686 -0.597549 -0.321776 0.80539 -0.466021 -1.06988 -0.922104 -0.000965098 